digraph Tree {
node [shape=box, style="filled, rounded", color="black", fontname=helvetica] ;
edge [fontname=helvetica] ;
0 [label="X[1] <= 50.0\ngini = 0.898\nsamples = 284\nvalue = [13, 10, 21, 4, 1, 56, 14, 9, 35, 19, 31, 9, 2\n2, 12, 34, 12]\nclass = CONSUL", fillcolor="#eefdf1"] ;
1 [label="X[2] <= 50.5\ngini = 0.813\nsamples = 180\nvalue = [12, 0, 1, 0, 0, 56, 0, 9, 35, 19, 31, 1, 2\n2, 0, 0, 12]\nclass = CONSUL", fillcolor="#e2fbe7"] ;
0 -> 1 [labeldistance=2.5, labelangle=45, headlabel="True"] ;
2 [label="X[0] <= 50.0\ngini = 0.641\nsamples = 113\nvalue = [12, 0, 1, 0, 0, 56, 0, 9, 35, 0, 0, 0, 0, 0\n0, 0, 0]\nclass = CONSUL", fillcolor="#caf8d2"] ;
1 -> 2 ;
3 [label="X[0] <= 38.0\ngini = 0.49\nsamples = 21\nvalue = [12, 0, 0, 0, 0, 0, 0, 9, 0, 0, 0, 0, 0, 0\n0, 0, 0]\nclass = ADVENTURER", fillcolor="#f8e0ce"] ;
2 -> 3 ;
4 [label="X[0] <= 18.5\ngini = 0.375\nsamples = 8\nvalue = [2, 0, 0, 0, 0, 0, 0, 6, 0, 0, 0, 0, 0, 0\n0, 0, 0]\nclass = DEFENDER", fillcolor="#7beee0"] ;
3 -> 4 ;
5 [label="gini = 0.0\nsamples = 1\nvalue = [1, 0, 0, 0, 0, 0, 0, 0, 0, 0, 0, 0, 0, 0\n0, 0, 0]\nclass = ADVENTURER", fillcolor="#e58139"] ;
4 -> 5 ;
6 [label="X[2] <= 33.5\ngini = 0.245\nsamples = 7\nvalue = [1, 0, 0, 0, 0, 0, 0, 6, 0, 0, 0, 0, 0, 0\n0, 0, 0]\nclass = DEFENDER", fillcolor="#5ae9d9"] ;
4 -> 6 ;
7 [label="gini = 0.0\nsamples = 1\nvalue = [1, 0, 0, 0, 0, 0, 0, 0, 0, 0, 0, 0, 0, 0\n0, 0, 0]\nclass = ADVENTURER", fillcolor="#e58139"] ;
6 -> 7 ;
8 [label="gini = 0.0\nsamples = 6\nvalue = [0, 0, 0, 0, 0, 0, 0, 6, 0, 0, 0, 0, 0, 0\n0, 0, 0]\nclass = DEFENDER", fillcolor="#39e5d1"] ;
6 -> 8 ;
9 [label="X[1] <= 43.5\ngini = 0.355\nsamples = 13\nvalue = [10, 0, 0, 0, 0, 0, 0, 3, 0, 0, 0, 0, 0, 0\n0, 0, 0]\nclass = ADVENTURER", fillcolor="#eda774"] ;
3 -> 9 ;
10 [label="X[2] <= 46.5\ngini = 0.198\nsamples = 9\nvalue = [8, 0, 0, 0, 0, 0, 0, 1, 0, 0, 0, 0, 0, 0\n0, 0, 0]\nclass = ADVENTURER", fillcolor="#e89152"] ;
9 -> 10 ;
11 [label="gini = 0.0\nsamples = 6\nvalue = [6, 0, 0, 0, 0, 0, 0, 0, 0, 0, 0, 0, 0, 0\n0, 0, 0]\nclass = ADVENTURER", fillcolor="#e58139"] ;
10 -> 11 ;
12 [label="X[0] <= 44.5\ngini = 0.444\nsamples = 3\nvalue = [2, 0, 0, 0, 0, 0, 0, 1, 0, 0, 0, 0, 0, 0\n0, 0, 0]\nclass = ADVENTURER", fillcolor="#f2c09c"] ;
10 -> 12 ;
13 [label="gini = 0.0\nsamples = 1\nvalue = [1, 0, 0, 0, 0, 0, 0, 0, 0, 0, 0, 0, 0, 0\n0, 0, 0]\nclass = ADVENTURER", fillcolor="#e58139"] ;
12 -> 13 ;
14 [label="X[1] <= 34.0\ngini = 0.5\nsamples = 2\nvalue = [1, 0, 0, 0, 0, 0, 0, 1, 0, 0, 0, 0, 0, 0\n0, 0, 0]\nclass = ADVENTURER", fillcolor="#ffffff"] ;
12 -> 14 ;
15 [label="gini = 0.0\nsamples = 1\nvalue = [1, 0, 0, 0, 0, 0, 0, 0, 0, 0, 0, 0, 0, 0\n0, 0, 0]\nclass = ADVENTURER", fillcolor="#e58139"] ;
14 -> 15 ;
16 [label="gini = 0.0\nsamples = 1\nvalue = [0, 0, 0, 0, 0, 0, 0, 1, 0, 0, 0, 0, 0, 0\n0, 0, 0]\nclass = DEFENDER", fillcolor="#39e5d1"] ;
14 -> 16 ;
17 [label="X[3] <= 73.5\ngini = 0.5\nsamples = 4\nvalue = [2, 0, 0, 0, 0, 0, 0, 2, 0, 0, 0, 0, 0, 0\n0, 0, 0]\nclass = ADVENTURER", fillcolor="#ffffff"] ;
9 -> 17 ;
18 [label="gini = 0.0\nsamples = 2\nvalue = [0, 0, 0, 0, 0, 0, 0, 2, 0, 0, 0, 0, 0, 0\n0, 0, 0]\nclass = DEFENDER", fillcolor="#39e5d1"] ;
17 -> 18 ;
19 [label="gini = 0.0\nsamples = 2\nvalue = [2, 0, 0, 0, 0, 0, 0, 0, 0, 0, 0, 0, 0, 0\n0, 0, 0]\nclass = ADVENTURER", fillcolor="#e58139"] ;
17 -> 19 ;
20 [label="X[3] <= 35.5\ngini = 0.485\nsamples = 92\nvalue = [0, 0, 1, 0, 0, 56, 0, 0, 35, 0, 0, 0, 0, 0\n0, 0, 0]\nclass = CONSUL", fillcolor="#b6f5c1"] ;
2 -> 20 ;
21 [label="gini = 0.0\nsamples = 4\nvalue = [0, 0, 0, 0, 0, 0, 0, 0, 4, 0, 0, 0, 0, 0\n0, 0, 0]\nclass = ENTERTAINER", fillcolor="#39bde5"] ;
20 -> 21 ;
22 [label="X[3] <= 82.5\ngini = 0.471\nsamples = 88\nvalue = [0, 0, 1, 0, 0, 56, 0, 0, 31, 0, 0, 0, 0, 0\n0, 0, 0]\nclass = CONSUL", fillcolor="#a8f4b5"] ;
20 -> 22 ;
23 [label="X[3] <= 63.5\ngini = 0.479\nsamples = 78\nvalue = [0, 0, 0, 0, 0, 47, 0, 0, 31, 0, 0, 0, 0, 0\n0, 0, 0]\nclass = CONSUL", fillcolor="#bcf6c5"] ;
22 -> 23 ;
24 [label="X[2] <= 39.5\ngini = 0.425\nsamples = 49\nvalue = [0, 0, 0, 0, 0, 34, 0, 0, 15, 0, 0, 0, 0, 0\n0, 0, 0]\nclass = CONSUL", fillcolor="#90f0a1"] ;
23 -> 24 ;
25 [label="X[0] <= 74.0\ngini = 0.5\nsamples = 20\nvalue = [0, 0, 0, 0, 0, 10, 0, 0, 10, 0, 0, 0, 0, 0\n0, 0, 0]\nclass = CONSUL", fillcolor="#ffffff"] ;
24 -> 25 ;
26 [label="X[1] <= 42.5\ngini = 0.469\nsamples = 16\nvalue = [0, 0, 0, 0, 0, 6, 0, 0, 10, 0, 0, 0, 0, 0\n0, 0, 0]\nclass = ENTERTAINER", fillcolor="#b0e5f5"] ;
25 -> 26 ;
27 [label="X[1] <= 37.5\ngini = 0.5\nsamples = 12\nvalue = [0, 0, 0, 0, 0, 6, 0, 0, 6, 0, 0, 0, 0, 0\n0, 0, 0]\nclass = CONSUL", fillcolor="#ffffff"] ;
26 -> 27 ;
28 [label="X[1] <= 26.5\ngini = 0.32\nsamples = 5\nvalue = [0, 0, 0, 0, 0, 1, 0, 0, 4, 0, 0, 0, 0, 0\n0, 0, 0]\nclass = ENTERTAINER", fillcolor="#6aceec"] ;
27 -> 28 ;
29 [label="gini = 0.0\nsamples = 1\nvalue = [0, 0, 0, 0, 0, 1, 0, 0, 0, 0, 0, 0, 0, 0\n0, 0, 0]\nclass = CONSUL", fillcolor="#39e556"] ;
28 -> 29 ;
30 [label="gini = 0.0\nsamples = 4\nvalue = [0, 0, 0, 0, 0, 0, 0, 0, 4, 0, 0, 0, 0, 0\n0, 0, 0]\nclass = ENTERTAINER", fillcolor="#39bde5"] ;
28 -> 30 ;
31 [label="X[1] <= 41.5\ngini = 0.408\nsamples = 7\nvalue = [0, 0, 0, 0, 0, 5, 0, 0, 2, 0, 0, 0, 0, 0\n0, 0, 0]\nclass = CONSUL", fillcolor="#88ef9a"] ;
27 -> 31 ;
32 [label="gini = 0.0\nsamples = 4\nvalue = [0, 0, 0, 0, 0, 4, 0, 0, 0, 0, 0, 0, 0, 0\n0, 0, 0]\nclass = CONSUL", fillcolor="#39e556"] ;
31 -> 32 ;
33 [label="X[0] <= 65.5\ngini = 0.444\nsamples = 3\nvalue = [0, 0, 0, 0, 0, 1, 0, 0, 2, 0, 0, 0, 0, 0\n0, 0, 0]\nclass = ENTERTAINER", fillcolor="#9cdef2"] ;
31 -> 33 ;
34 [label="gini = 0.0\nsamples = 2\nvalue = [0, 0, 0, 0, 0, 0, 0, 0, 2, 0, 0, 0, 0, 0\n0, 0, 0]\nclass = ENTERTAINER", fillcolor="#39bde5"] ;
33 -> 34 ;
35 [label="gini = 0.0\nsamples = 1\nvalue = [0, 0, 0, 0, 0, 1, 0, 0, 0, 0, 0, 0, 0, 0\n0, 0, 0]\nclass = CONSUL", fillcolor="#39e556"] ;
33 -> 35 ;
36 [label="gini = 0.0\nsamples = 4\nvalue = [0, 0, 0, 0, 0, 0, 0, 0, 4, 0, 0, 0, 0, 0\n0, 0, 0]\nclass = ENTERTAINER", fillcolor="#39bde5"] ;
26 -> 36 ;
37 [label="gini = 0.0\nsamples = 4\nvalue = [0, 0, 0, 0, 0, 4, 0, 0, 0, 0, 0, 0, 0, 0\n0, 0, 0]\nclass = CONSUL", fillcolor="#39e556"] ;
25 -> 37 ;
38 [label="X[2] <= 46.5\ngini = 0.285\nsamples = 29\nvalue = [0, 0, 0, 0, 0, 24, 0, 0, 5, 0, 0, 0, 0, 0\n0, 0, 0]\nclass = CONSUL", fillcolor="#62ea79"] ;
24 -> 38 ;
39 [label="X[1] <= 36.5\ngini = 0.153\nsamples = 24\nvalue = [0, 0, 0, 0, 0, 22, 0, 0, 2, 0, 0, 0, 0, 0\n0, 0, 0]\nclass = CONSUL", fillcolor="#4be765"] ;
38 -> 39 ;
40 [label="X[0] <= 71.0\ngini = 0.346\nsamples = 9\nvalue = [0, 0, 0, 0, 0, 7, 0, 0, 2, 0, 0, 0, 0, 0\n0, 0, 0]\nclass = CONSUL", fillcolor="#72ec86"] ;
39 -> 40 ;
41 [label="gini = 0.0\nsamples = 5\nvalue = [0, 0, 0, 0, 0, 5, 0, 0, 0, 0, 0, 0, 0, 0\n0, 0, 0]\nclass = CONSUL", fillcolor="#39e556"] ;
40 -> 41 ;
42 [label="X[0] <= 76.5\ngini = 0.5\nsamples = 4\nvalue = [0, 0, 0, 0, 0, 2, 0, 0, 2, 0, 0, 0, 0, 0\n0, 0, 0]\nclass = CONSUL", fillcolor="#ffffff"] ;
40 -> 42 ;
43 [label="gini = 0.0\nsamples = 2\nvalue = [0, 0, 0, 0, 0, 0, 0, 0, 2, 0, 0, 0, 0, 0\n0, 0, 0]\nclass = ENTERTAINER", fillcolor="#39bde5"] ;
42 -> 43 ;
44 [label="gini = 0.0\nsamples = 2\nvalue = [0, 0, 0, 0, 0, 2, 0, 0, 0, 0, 0, 0, 0, 0\n0, 0, 0]\nclass = CONSUL", fillcolor="#39e556"] ;
42 -> 44 ;
45 [label="gini = 0.0\nsamples = 15\nvalue = [0, 0, 0, 0, 0, 15, 0, 0, 0, 0, 0, 0, 0, 0\n0, 0, 0]\nclass = CONSUL", fillcolor="#39e556"] ;
39 -> 45 ;
46 [label="X[1] <= 43.5\ngini = 0.48\nsamples = 5\nvalue = [0, 0, 0, 0, 0, 2, 0, 0, 3, 0, 0, 0, 0, 0\n0, 0, 0]\nclass = ENTERTAINER", fillcolor="#bde9f6"] ;
38 -> 46 ;
47 [label="gini = 0.0\nsamples = 2\nvalue = [0, 0, 0, 0, 0, 0, 0, 0, 2, 0, 0, 0, 0, 0\n0, 0, 0]\nclass = ENTERTAINER", fillcolor="#39bde5"] ;
46 -> 47 ;
48 [label="X[1] <= 46.5\ngini = 0.444\nsamples = 3\nvalue = [0, 0, 0, 0, 0, 2, 0, 0, 1, 0, 0, 0, 0, 0\n0, 0, 0]\nclass = CONSUL", fillcolor="#9cf2aa"] ;
46 -> 48 ;
49 [label="gini = 0.0\nsamples = 2\nvalue = [0, 0, 0, 0, 0, 2, 0, 0, 0, 0, 0, 0, 0, 0\n0, 0, 0]\nclass = CONSUL", fillcolor="#39e556"] ;
48 -> 49 ;
50 [label="gini = 0.0\nsamples = 1\nvalue = [0, 0, 0, 0, 0, 0, 0, 0, 1, 0, 0, 0, 0, 0\n0, 0, 0]\nclass = ENTERTAINER", fillcolor="#39bde5"] ;
48 -> 50 ;
51 [label="X[0] <= 66.0\ngini = 0.495\nsamples = 29\nvalue = [0, 0, 0, 0, 0, 13, 0, 0, 16, 0, 0, 0, 0, 0\n0, 0, 0]\nclass = ENTERTAINER", fillcolor="#daf3fa"] ;
23 -> 51 ;
52 [label="gini = 0.0\nsamples = 4\nvalue = [0, 0, 0, 0, 0, 0, 0, 0, 4, 0, 0, 0, 0, 0\n0, 0, 0]\nclass = ENTERTAINER", fillcolor="#39bde5"] ;
51 -> 52 ;
53 [label="X[0] <= 85.5\ngini = 0.499\nsamples = 25\nvalue = [0, 0, 0, 0, 0, 13, 0, 0, 12, 0, 0, 0, 0, 0\n0, 0, 0]\nclass = CONSUL", fillcolor="#f0fdf2"] ;
51 -> 53 ;
54 [label="X[2] <= 23.0\ngini = 0.465\nsamples = 19\nvalue = [0, 0, 0, 0, 0, 12, 0, 0, 7, 0, 0, 0, 0, 0\n0, 0, 0]\nclass = CONSUL", fillcolor="#acf4b9"] ;
53 -> 54 ;
55 [label="gini = 0.0\nsamples = 2\nvalue = [0, 0, 0, 0, 0, 0, 0, 0, 2, 0, 0, 0, 0, 0\n0, 0, 0]\nclass = ENTERTAINER", fillcolor="#39bde5"] ;
54 -> 55 ;
56 [label="X[1] <= 45.5\ngini = 0.415\nsamples = 17\nvalue = [0, 0, 0, 0, 0, 12, 0, 0, 5, 0, 0, 0, 0, 0\n0, 0, 0]\nclass = CONSUL", fillcolor="#8bf09c"] ;
54 -> 56 ;
57 [label="X[0] <= 76.5\ngini = 0.337\nsamples = 14\nvalue = [0, 0, 0, 0, 0, 11, 0, 0, 3, 0, 0, 0, 0, 0\n0, 0, 0]\nclass = CONSUL", fillcolor="#6fec84"] ;
56 -> 57 ;
58 [label="X[0] <= 74.5\ngini = 0.444\nsamples = 9\nvalue = [0, 0, 0, 0, 0, 6, 0, 0, 3, 0, 0, 0, 0, 0\n0, 0, 0]\nclass = CONSUL", fillcolor="#9cf2aa"] ;
57 -> 58 ;
59 [label="X[1] <= 37.0\ngini = 0.278\nsamples = 6\nvalue = [0, 0, 0, 0, 0, 5, 0, 0, 1, 0, 0, 0, 0, 0\n0, 0, 0]\nclass = CONSUL", fillcolor="#61ea78"] ;
58 -> 59 ;
60 [label="X[3] <= 77.0\ngini = 0.5\nsamples = 2\nvalue = [0, 0, 0, 0, 0, 1, 0, 0, 1, 0, 0, 0, 0, 0\n0, 0, 0]\nclass = CONSUL", fillcolor="#ffffff"] ;
59 -> 60 ;
61 [label="gini = 0.0\nsamples = 1\nvalue = [0, 0, 0, 0, 0, 0, 0, 0, 1, 0, 0, 0, 0, 0\n0, 0, 0]\nclass = ENTERTAINER", fillcolor="#39bde5"] ;
60 -> 61 ;
62 [label="gini = 0.0\nsamples = 1\nvalue = [0, 0, 0, 0, 0, 1, 0, 0, 0, 0, 0, 0, 0, 0\n0, 0, 0]\nclass = CONSUL", fillcolor="#39e556"] ;
60 -> 62 ;
63 [label="gini = 0.0\nsamples = 4\nvalue = [0, 0, 0, 0, 0, 4, 0, 0, 0, 0, 0, 0, 0, 0\n0, 0, 0]\nclass = CONSUL", fillcolor="#39e556"] ;
59 -> 63 ;
64 [label="X[3] <= 72.0\ngini = 0.444\nsamples = 3\nvalue = [0, 0, 0, 0, 0, 1, 0, 0, 2, 0, 0, 0, 0, 0\n0, 0, 0]\nclass = ENTERTAINER", fillcolor="#9cdef2"] ;
58 -> 64 ;
65 [label="gini = 0.0\nsamples = 2\nvalue = [0, 0, 0, 0, 0, 0, 0, 0, 2, 0, 0, 0, 0, 0\n0, 0, 0]\nclass = ENTERTAINER", fillcolor="#39bde5"] ;
64 -> 65 ;
66 [label="gini = 0.0\nsamples = 1\nvalue = [0, 0, 0, 0, 0, 1, 0, 0, 0, 0, 0, 0, 0, 0\n0, 0, 0]\nclass = CONSUL", fillcolor="#39e556"] ;
64 -> 66 ;
67 [label="gini = 0.0\nsamples = 5\nvalue = [0, 0, 0, 0, 0, 5, 0, 0, 0, 0, 0, 0, 0, 0\n0, 0, 0]\nclass = CONSUL", fillcolor="#39e556"] ;
57 -> 67 ;
68 [label="X[2] <= 31.5\ngini = 0.444\nsamples = 3\nvalue = [0, 0, 0, 0, 0, 1, 0, 0, 2, 0, 0, 0, 0, 0\n0, 0, 0]\nclass = ENTERTAINER", fillcolor="#9cdef2"] ;
56 -> 68 ;
69 [label="gini = 0.0\nsamples = 1\nvalue = [0, 0, 0, 0, 0, 1, 0, 0, 0, 0, 0, 0, 0, 0\n0, 0, 0]\nclass = CONSUL", fillcolor="#39e556"] ;
68 -> 69 ;
70 [label="gini = 0.0\nsamples = 2\nvalue = [0, 0, 0, 0, 0, 0, 0, 0, 2, 0, 0, 0, 0, 0\n0, 0, 0]\nclass = ENTERTAINER", fillcolor="#39bde5"] ;
68 -> 70 ;
71 [label="X[3] <= 78.0\ngini = 0.278\nsamples = 6\nvalue = [0, 0, 0, 0, 0, 1, 0, 0, 5, 0, 0, 0, 0, 0\n0, 0, 0]\nclass = ENTERTAINER", fillcolor="#61caea"] ;
53 -> 71 ;
72 [label="gini = 0.0\nsamples = 5\nvalue = [0, 0, 0, 0, 0, 0, 0, 0, 5, 0, 0, 0, 0, 0\n0, 0, 0]\nclass = ENTERTAINER", fillcolor="#39bde5"] ;
71 -> 72 ;
73 [label="gini = 0.0\nsamples = 1\nvalue = [0, 0, 0, 0, 0, 1, 0, 0, 0, 0, 0, 0, 0, 0\n0, 0, 0]\nclass = CONSUL", fillcolor="#39e556"] ;
71 -> 73 ;
74 [label="X[0] <= 81.5\ngini = 0.18\nsamples = 10\nvalue = [0, 0, 1, 0, 0, 9, 0, 0, 0, 0, 0, 0, 0, 0\n0, 0, 0]\nclass = CONSUL", fillcolor="#4fe869"] ;
22 -> 74 ;
75 [label="gini = 0.0\nsamples = 7\nvalue = [0, 0, 0, 0, 0, 7, 0, 0, 0, 0, 0, 0, 0, 0\n0, 0, 0]\nclass = CONSUL", fillcolor="#39e556"] ;
74 -> 75 ;
76 [label="X[1] <= 38.0\ngini = 0.444\nsamples = 3\nvalue = [0, 0, 1, 0, 0, 2, 0, 0, 0, 0, 0, 0, 0, 0\n0, 0, 0]\nclass = CONSUL", fillcolor="#9cf2aa"] ;
74 -> 76 ;
77 [label="gini = 0.0\nsamples = 1\nvalue = [0, 0, 1, 0, 0, 0, 0, 0, 0, 0, 0, 0, 0, 0\n0, 0, 0]\nclass = CAMPAIGNER", fillcolor="#d1e539"] ;
76 -> 77 ;
78 [label="gini = 0.0\nsamples = 2\nvalue = [0, 0, 0, 0, 0, 2, 0, 0, 0, 0, 0, 0, 0, 0\n0, 0, 0]\nclass = CONSUL", fillcolor="#39e556"] ;
76 -> 78 ;
79 [label="X[0] <= 50.5\ngini = 0.671\nsamples = 67\nvalue = [0, 0, 0, 0, 0, 0, 0, 0, 0, 19, 31, 1, 2, 2\n0, 0, 12]\nclass = EXECUTIVE", fillcolor="#ced0f8"] ;
1 -> 79 ;
80 [label="X[0] <= 40.5\ngini = 0.471\nsamples = 17\nvalue = [0, 0, 0, 0, 0, 0, 0, 0, 0, 0, 0, 1, 2, 2\n0, 0, 12]\nclass = PROTAGONISt", fillcolor="#ee807b"] ;
79 -> 80 ;
81 [label="X[1] <= 44.5\ngini = 0.722\nsamples = 6\nvalue = [0, 0, 0, 0, 0, 0, 0, 0, 0, 0, 0, 1, 1, 2\n0, 0, 2]\nclass = LOGISTICIAN ", fillcolor="#ffffff"] ;
80 -> 81 ;
82 [label="X[3] <= 84.0\ngini = 0.64\nsamples = 5\nvalue = [0, 0, 0, 0, 0, 0, 0, 0, 0, 0, 0, 0, 1, 2\n0, 0, 2]\nclass = LOGISTICIAN ", fillcolor="#ffffff"] ;
81 -> 82 ;
83 [label="X[2] <= 53.0\ngini = 0.5\nsamples = 4\nvalue = [0, 0, 0, 0, 0, 0, 0, 0, 0, 0, 0, 0, 0, 2\n0, 0, 2]\nclass = LOGISTICIAN ", fillcolor="#ffffff"] ;
82 -> 83 ;
84 [label="gini = 0.0\nsamples = 1\nvalue = [0, 0, 0, 0, 0, 0, 0, 0, 0, 0, 0, 0, 0, 1\n0, 0, 0]\nclass = LOGISTICIAN ", fillcolor="#e539e5"] ;
83 -> 84 ;
85 [label="X[0] <= 34.5\ngini = 0.444\nsamples = 3\nvalue = [0, 0, 0, 0, 0, 0, 0, 0, 0, 0, 0, 0, 0, 1\n0, 0, 2]\nclass = PROTAGONISt", fillcolor="#f2a09c"] ;
83 -> 85 ;
86 [label="gini = 0.0\nsamples = 1\nvalue = [0, 0, 0, 0, 0, 0, 0, 0, 0, 0, 0, 0, 0, 0\n0, 0, 1]\nclass = PROTAGONISt", fillcolor="#e54139"] ;
85 -> 86 ;
87 [label="X[1] <= 38.0\ngini = 0.5\nsamples = 2\nvalue = [0, 0, 0, 0, 0, 0, 0, 0, 0, 0, 0, 0, 0, 1\n0, 0, 1]\nclass = LOGISTICIAN ", fillcolor="#ffffff"] ;
85 -> 87 ;
88 [label="gini = 0.0\nsamples = 1\nvalue = [0, 0, 0, 0, 0, 0, 0, 0, 0, 0, 0, 0, 0, 1\n0, 0, 0]\nclass = LOGISTICIAN ", fillcolor="#e539e5"] ;
87 -> 88 ;
89 [label="gini = 0.0\nsamples = 1\nvalue = [0, 0, 0, 0, 0, 0, 0, 0, 0, 0, 0, 0, 0, 0\n0, 0, 1]\nclass = PROTAGONISt", fillcolor="#e54139"] ;
87 -> 89 ;
90 [label="gini = 0.0\nsamples = 1\nvalue = [0, 0, 0, 0, 0, 0, 0, 0, 0, 0, 0, 0, 1, 0\n0, 0, 0]\nclass = LOGISTICIAN", fillcolor="#a939e5"] ;
82 -> 90 ;
91 [label="gini = 0.0\nsamples = 1\nvalue = [0, 0, 0, 0, 0, 0, 0, 0, 0, 0, 0, 1, 0, 0\n0, 0, 0]\nclass = LOGICIAN", fillcolor="#6a39e5"] ;
81 -> 91 ;
92 [label="X[3] <= 56.0\ngini = 0.165\nsamples = 11\nvalue = [0, 0, 0, 0, 0, 0, 0, 0, 0, 0, 0, 0, 1, 0\n0, 0, 10]\nclass = PROTAGONISt", fillcolor="#e8544d"] ;
80 -> 92 ;
93 [label="gini = 0.0\nsamples = 7\nvalue = [0, 0, 0, 0, 0, 0, 0, 0, 0, 0, 0, 0, 0, 0\n0, 0, 7]\nclass = PROTAGONISt", fillcolor="#e54139"] ;
92 -> 93 ;
94 [label="X[3] <= 59.0\ngini = 0.375\nsamples = 4\nvalue = [0, 0, 0, 0, 0, 0, 0, 0, 0, 0, 0, 0, 1, 0\n0, 0, 3]\nclass = PROTAGONISt", fillcolor="#ee807b"] ;
92 -> 94 ;
95 [label="gini = 0.0\nsamples = 1\nvalue = [0, 0, 0, 0, 0, 0, 0, 0, 0, 0, 0, 0, 1, 0\n0, 0, 0]\nclass = LOGISTICIAN", fillcolor="#a939e5"] ;
94 -> 95 ;
96 [label="gini = 0.0\nsamples = 3\nvalue = [0, 0, 0, 0, 0, 0, 0, 0, 0, 0, 0, 0, 0, 0\n0, 0, 3]\nclass = PROTAGONISt", fillcolor="#e54139"] ;
94 -> 96 ;
97 [label="X[1] <= 40.0\ngini = 0.471\nsamples = 50\nvalue = [0, 0, 0, 0, 0, 0, 0, 0, 0, 19, 31, 0, 0, 0\n0, 0, 0]\nclass = EXECUTIVE", fillcolor="#b2b7f5"] ;
79 -> 97 ;
98 [label="X[1] <= 26.0\ngini = 0.476\nsamples = 23\nvalue = [0, 0, 0, 0, 0, 0, 0, 0, 0, 14, 9, 0, 0, 0\n0, 0, 0]\nclass = ENTREPRENEUR", fillcolor="#b8d2f6"] ;
97 -> 98 ;
99 [label="gini = 0.0\nsamples = 3\nvalue = [0, 0, 0, 0, 0, 0, 0, 0, 0, 0, 3, 0, 0, 0\n0, 0, 0]\nclass = EXECUTIVE", fillcolor="#3944e5"] ;
98 -> 99 ;
100 [label="X[0] <= 60.5\ngini = 0.42\nsamples = 20\nvalue = [0, 0, 0, 0, 0, 0, 0, 0, 0, 14, 6, 0, 0, 0\n0, 0, 0]\nclass = ENTREPRENEUR", fillcolor="#8eb7f0"] ;
98 -> 100 ;
101 [label="X[0] <= 55.0\ngini = 0.444\nsamples = 6\nvalue = [0, 0, 0, 0, 0, 0, 0, 0, 0, 2, 4, 0, 0, 0\n0, 0, 0]\nclass = EXECUTIVE", fillcolor="#9ca2f2"] ;
100 -> 101 ;
102 [label="gini = 0.0\nsamples = 2\nvalue = [0, 0, 0, 0, 0, 0, 0, 0, 0, 2, 0, 0, 0, 0\n0, 0, 0]\nclass = ENTREPRENEUR", fillcolor="#3981e5"] ;
101 -> 102 ;
103 [label="gini = 0.0\nsamples = 4\nvalue = [0, 0, 0, 0, 0, 0, 0, 0, 0, 0, 4, 0, 0, 0\n0, 0, 0]\nclass = EXECUTIVE", fillcolor="#3944e5"] ;
101 -> 103 ;
104 [label="X[0] <= 81.0\ngini = 0.245\nsamples = 14\nvalue = [0, 0, 0, 0, 0, 0, 0, 0, 0, 12, 2, 0, 0, 0\n0, 0, 0]\nclass = ENTREPRENEUR", fillcolor="#5a96e9"] ;
100 -> 104 ;
105 [label="X[1] <= 38.0\ngini = 0.153\nsamples = 12\nvalue = [0, 0, 0, 0, 0, 0, 0, 0, 0, 11, 1, 0, 0, 0\n0, 0, 0]\nclass = ENTREPRENEUR", fillcolor="#4b8ce7"] ;
104 -> 105 ;
106 [label="gini = 0.0\nsamples = 10\nvalue = [0, 0, 0, 0, 0, 0, 0, 0, 0, 10, 0, 0, 0, 0\n0, 0, 0]\nclass = ENTREPRENEUR", fillcolor="#3981e5"] ;
105 -> 106 ;
107 [label="X[3] <= 47.0\ngini = 0.5\nsamples = 2\nvalue = [0, 0, 0, 0, 0, 0, 0, 0, 0, 1, 1, 0, 0, 0\n0, 0, 0]\nclass = ENTREPRENEUR", fillcolor="#ffffff"] ;
105 -> 107 ;
108 [label="gini = 0.0\nsamples = 1\nvalue = [0, 0, 0, 0, 0, 0, 0, 0, 0, 0, 1, 0, 0, 0\n0, 0, 0]\nclass = EXECUTIVE", fillcolor="#3944e5"] ;
107 -> 108 ;
109 [label="gini = 0.0\nsamples = 1\nvalue = [0, 0, 0, 0, 0, 0, 0, 0, 0, 1, 0, 0, 0, 0\n0, 0, 0]\nclass = ENTREPRENEUR", fillcolor="#3981e5"] ;
107 -> 109 ;
110 [label="X[2] <= 60.0\ngini = 0.5\nsamples = 2\nvalue = [0, 0, 0, 0, 0, 0, 0, 0, 0, 1, 1, 0, 0, 0\n0, 0, 0]\nclass = ENTREPRENEUR", fillcolor="#ffffff"] ;
104 -> 110 ;
111 [label="gini = 0.0\nsamples = 1\nvalue = [0, 0, 0, 0, 0, 0, 0, 0, 0, 0, 1, 0, 0, 0\n0, 0, 0]\nclass = EXECUTIVE", fillcolor="#3944e5"] ;
110 -> 111 ;
112 [label="gini = 0.0\nsamples = 1\nvalue = [0, 0, 0, 0, 0, 0, 0, 0, 0, 1, 0, 0, 0, 0\n0, 0, 0]\nclass = ENTREPRENEUR", fillcolor="#3981e5"] ;
110 -> 112 ;
113 [label="X[1] <= 45.5\ngini = 0.302\nsamples = 27\nvalue = [0, 0, 0, 0, 0, 0, 0, 0, 0, 5, 22, 0, 0, 0\n0, 0, 0]\nclass = EXECUTIVE", fillcolor="#666feb"] ;
97 -> 113 ;
114 [label="X[2] <= 55.0\ngini = 0.165\nsamples = 22\nvalue = [0, 0, 0, 0, 0, 0, 0, 0, 0, 2, 20, 0, 0, 0\n0, 0, 0]\nclass = EXECUTIVE", fillcolor="#4d57e8"] ;
113 -> 114 ;
115 [label="X[2] <= 53.5\ngini = 0.444\nsamples = 6\nvalue = [0, 0, 0, 0, 0, 0, 0, 0, 0, 2, 4, 0, 0, 0\n0, 0, 0]\nclass = EXECUTIVE", fillcolor="#9ca2f2"] ;
114 -> 115 ;
116 [label="gini = 0.0\nsamples = 4\nvalue = [0, 0, 0, 0, 0, 0, 0, 0, 0, 0, 4, 0, 0, 0\n0, 0, 0]\nclass = EXECUTIVE", fillcolor="#3944e5"] ;
115 -> 116 ;
117 [label="gini = 0.0\nsamples = 2\nvalue = [0, 0, 0, 0, 0, 0, 0, 0, 0, 2, 0, 0, 0, 0\n0, 0, 0]\nclass = ENTREPRENEUR", fillcolor="#3981e5"] ;
115 -> 117 ;
118 [label="gini = 0.0\nsamples = 16\nvalue = [0, 0, 0, 0, 0, 0, 0, 0, 0, 0, 16, 0, 0, 0\n0, 0, 0]\nclass = EXECUTIVE", fillcolor="#3944e5"] ;
114 -> 118 ;
119 [label="X[2] <= 67.0\ngini = 0.48\nsamples = 5\nvalue = [0, 0, 0, 0, 0, 0, 0, 0, 0, 3, 2, 0, 0, 0\n0, 0, 0]\nclass = ENTREPRENEUR", fillcolor="#bdd5f6"] ;
113 -> 119 ;
120 [label="X[0] <= 78.0\ngini = 0.375\nsamples = 4\nvalue = [0, 0, 0, 0, 0, 0, 0, 0, 0, 3, 1, 0, 0, 0\n0, 0, 0]\nclass = ENTREPRENEUR", fillcolor="#7babee"] ;
119 -> 120 ;
121 [label="gini = 0.0\nsamples = 3\nvalue = [0, 0, 0, 0, 0, 0, 0, 0, 0, 3, 0, 0, 0, 0\n0, 0, 0]\nclass = ENTREPRENEUR", fillcolor="#3981e5"] ;
120 -> 121 ;
122 [label="gini = 0.0\nsamples = 1\nvalue = [0, 0, 0, 0, 0, 0, 0, 0, 0, 0, 1, 0, 0, 0\n0, 0, 0]\nclass = EXECUTIVE", fillcolor="#3944e5"] ;
120 -> 122 ;
123 [label="gini = 0.0\nsamples = 1\nvalue = [0, 0, 0, 0, 0, 0, 0, 0, 0, 0, 1, 0, 0, 0\n0, 0, 0]\nclass = EXECUTIVE", fillcolor="#3944e5"] ;
119 -> 123 ;
124 [label="X[0] <= 50.0\ngini = 0.808\nsamples = 104\nvalue = [1, 10, 20, 4, 1, 0, 14, 0, 0, 0, 0, 8, 0, 0\n12, 34, 0]\nclass = PROTAGONIST", fillcolor="#fbdee7"] ;
0 -> 124 [labeldistance=2.5, labelangle=-45, headlabel="False"] ;
125 [label="X[2] <= 52.0\ngini = 0.658\nsamples = 30\nvalue = [0, 10, 0, 0, 0, 0, 0, 0, 0, 0, 0, 8, 0, 0\n12, 0, 0]\nclass = MEDIATOR", fillcolor="#fcebf6"] ;
124 -> 125 ;
126 [label="X[1] <= 54.0\ngini = 0.496\nsamples = 22\nvalue = [0, 10, 0, 0, 0, 0, 0, 0, 0, 0, 0, 0, 0, 0\n12, 0, 0]\nclass = MEDIATOR", fillcolor="#fbdef1"] ;
125 -> 126 ;
127 [label="gini = 0.0\nsamples = 4\nvalue = [0, 4, 0, 0, 0, 0, 0, 0, 0, 0, 0, 0, 0, 0\n0, 0, 0]\nclass = ADVOCATE", fillcolor="#e5bd39"] ;
126 -> 127 ;
128 [label="X[2] <= 19.5\ngini = 0.444\nsamples = 18\nvalue = [0, 6, 0, 0, 0, 0, 0, 0, 0, 0, 0, 0, 0, 0\n12, 0, 0]\nclass = MEDIATOR", fillcolor="#f29cd4"] ;
126 -> 128 ;
129 [label="gini = 0.0\nsamples = 2\nvalue = [0, 2, 0, 0, 0, 0, 0, 0, 0, 0, 0, 0, 0, 0\n0, 0, 0]\nclass = ADVOCATE", fillcolor="#e5bd39"] ;
128 -> 129 ;
130 [label="X[0] <= 46.0\ngini = 0.375\nsamples = 16\nvalue = [0, 4, 0, 0, 0, 0, 0, 0, 0, 0, 0, 0, 0, 0\n12, 0, 0]\nclass = MEDIATOR", fillcolor="#ee7bc6"] ;
128 -> 130 ;
131 [label="X[3] <= 39.5\ngini = 0.32\nsamples = 15\nvalue = [0, 3, 0, 0, 0, 0, 0, 0, 0, 0, 0, 0, 0, 0\n12, 0, 0]\nclass = MEDIATOR", fillcolor="#ec6abe"] ;
130 -> 131 ;
132 [label="gini = 0.0\nsamples = 6\nvalue = [0, 0, 0, 0, 0, 0, 0, 0, 0, 0, 0, 0, 0, 0\n6, 0, 0]\nclass = MEDIATOR", fillcolor="#e539a9"] ;
131 -> 132 ;
133 [label="X[2] <= 22.5\ngini = 0.444\nsamples = 9\nvalue = [0, 3, 0, 0, 0, 0, 0, 0, 0, 0, 0, 0, 0, 0\n6, 0, 0]\nclass = MEDIATOR", fillcolor="#f29cd4"] ;
131 -> 133 ;
134 [label="gini = 0.0\nsamples = 1\nvalue = [0, 1, 0, 0, 0, 0, 0, 0, 0, 0, 0, 0, 0, 0\n0, 0, 0]\nclass = ADVOCATE", fillcolor="#e5bd39"] ;
133 -> 134 ;
135 [label="X[3] <= 45.0\ngini = 0.375\nsamples = 8\nvalue = [0, 2, 0, 0, 0, 0, 0, 0, 0, 0, 0, 0, 0, 0\n6, 0, 0]\nclass = MEDIATOR", fillcolor="#ee7bc6"] ;
133 -> 135 ;
136 [label="gini = 0.0\nsamples = 1\nvalue = [0, 1, 0, 0, 0, 0, 0, 0, 0, 0, 0, 0, 0, 0\n0, 0, 0]\nclass = ADVOCATE", fillcolor="#e5bd39"] ;
135 -> 136 ;
137 [label="X[2] <= 47.0\ngini = 0.245\nsamples = 7\nvalue = [0, 1, 0, 0, 0, 0, 0, 0, 0, 0, 0, 0, 0, 0\n6, 0, 0]\nclass = MEDIATOR", fillcolor="#e95ab7"] ;
135 -> 137 ;
138 [label="gini = 0.0\nsamples = 5\nvalue = [0, 0, 0, 0, 0, 0, 0, 0, 0, 0, 0, 0, 0, 0\n5, 0, 0]\nclass = MEDIATOR", fillcolor="#e539a9"] ;
137 -> 138 ;
139 [label="X[0] <= 32.0\ngini = 0.5\nsamples = 2\nvalue = [0, 1, 0, 0, 0, 0, 0, 0, 0, 0, 0, 0, 0, 0\n1, 0, 0]\nclass = ADVOCATE", fillcolor="#ffffff"] ;
137 -> 139 ;
140 [label="gini = 0.0\nsamples = 1\nvalue = [0, 0, 0, 0, 0, 0, 0, 0, 0, 0, 0, 0, 0, 0\n1, 0, 0]\nclass = MEDIATOR", fillcolor="#e539a9"] ;
139 -> 140 ;
141 [label="gini = 0.0\nsamples = 1\nvalue = [0, 1, 0, 0, 0, 0, 0, 0, 0, 0, 0, 0, 0, 0\n0, 0, 0]\nclass = ADVOCATE", fillcolor="#e5bd39"] ;
139 -> 141 ;
142 [label="gini = 0.0\nsamples = 1\nvalue = [0, 1, 0, 0, 0, 0, 0, 0, 0, 0, 0, 0, 0, 0\n0, 0, 0]\nclass = ADVOCATE", fillcolor="#e5bd39"] ;
130 -> 142 ;
143 [label="gini = 0.0\nsamples = 8\nvalue = [0, 0, 0, 0, 0, 0, 0, 0, 0, 0, 0, 8, 0, 0\n0, 0, 0]\nclass = LOGICIAN", fillcolor="#6a39e5"] ;
125 -> 143 ;
144 [label="X[2] <= 51.5\ngini = 0.677\nsamples = 74\nvalue = [1, 0, 20, 4, 1, 0, 14, 0, 0, 0, 0, 0, 0, 0\n0, 34, 0]\nclass = PROTAGONIST", fillcolor="#f8ccd9"] ;
124 -> 144 ;
145 [label="X[3] <= 47.5\ngini = 0.507\nsamples = 55\nvalue = [1, 0, 20, 0, 1, 0, 0, 0, 0, 0, 0, 0, 0, 0\n0, 33, 0]\nclass = PROTAGONIST", fillcolor="#f5b5c9"] ;
144 -> 145 ;
146 [label="X[3] <= 32.5\ngini = 0.465\nsamples = 19\nvalue = [0, 0, 12, 0, 0, 0, 0, 0, 0, 0, 0, 0, 0, 0\n0, 7, 0]\nclass = CAMPAIGNER", fillcolor="#ecf4ac"] ;
145 -> 146 ;
147 [label="X[1] <= 66.0\ngini = 0.278\nsamples = 6\nvalue = [0, 0, 1, 0, 0, 0, 0, 0, 0, 0, 0, 0, 0, 0\n0, 5, 0]\nclass = PROTAGONIST", fillcolor="#ea618a"] ;
146 -> 147 ;
148 [label="gini = 0.0\nsamples = 5\nvalue = [0, 0, 0, 0, 0, 0, 0, 0, 0, 0, 0, 0, 0, 0\n0, 5, 0]\nclass = PROTAGONIST", fillcolor="#e5396d"] ;
147 -> 148 ;
149 [label="gini = 0.0\nsamples = 1\nvalue = [0, 0, 1, 0, 0, 0, 0, 0, 0, 0, 0, 0, 0, 0\n0, 0, 0]\nclass = CAMPAIGNER", fillcolor="#d1e539"] ;
147 -> 149 ;
150 [label="X[1] <= 77.5\ngini = 0.26\nsamples = 13\nvalue = [0, 0, 11, 0, 0, 0, 0, 0, 0, 0, 0, 0, 0, 0\n0, 2, 0]\nclass = CAMPAIGNER", fillcolor="#d9ea5d"] ;
146 -> 150 ;
151 [label="X[1] <= 56.5\ngini = 0.153\nsamples = 12\nvalue = [0, 0, 11, 0, 0, 0, 0, 0, 0, 0, 0, 0, 0, 0\n0, 1, 0]\nclass = CAMPAIGNER", fillcolor="#d5e74b"] ;
150 -> 151 ;
152 [label="X[1] <= 54.5\ngini = 0.5\nsamples = 2\nvalue = [0, 0, 1, 0, 0, 0, 0, 0, 0, 0, 0, 0, 0, 0\n0, 1, 0]\nclass = CAMPAIGNER", fillcolor="#ffffff"] ;
151 -> 152 ;
153 [label="gini = 0.0\nsamples = 1\nvalue = [0, 0, 1, 0, 0, 0, 0, 0, 0, 0, 0, 0, 0, 0\n0, 0, 0]\nclass = CAMPAIGNER", fillcolor="#d1e539"] ;
152 -> 153 ;
154 [label="gini = 0.0\nsamples = 1\nvalue = [0, 0, 0, 0, 0, 0, 0, 0, 0, 0, 0, 0, 0, 0\n0, 1, 0]\nclass = PROTAGONIST", fillcolor="#e5396d"] ;
152 -> 154 ;
155 [label="gini = 0.0\nsamples = 10\nvalue = [0, 0, 10, 0, 0, 0, 0, 0, 0, 0, 0, 0, 0, 0\n0, 0, 0]\nclass = CAMPAIGNER", fillcolor="#d1e539"] ;
151 -> 155 ;
156 [label="gini = 0.0\nsamples = 1\nvalue = [0, 0, 0, 0, 0, 0, 0, 0, 0, 0, 0, 0, 0, 0\n0, 1, 0]\nclass = PROTAGONIST", fillcolor="#e5396d"] ;
150 -> 156 ;
157 [label="X[0] <= 82.5\ngini = 0.427\nsamples = 36\nvalue = [1, 0, 8, 0, 1, 0, 0, 0, 0, 0, 0, 0, 0, 0\n0, 26, 0]\nclass = PROTAGONIST", fillcolor="#ee80a1"] ;
145 -> 157 ;
158 [label="X[2] <= 50.0\ngini = 0.331\nsamples = 31\nvalue = [1, 0, 4, 0, 1, 0, 0, 0, 0, 0, 0, 0, 0, 0\n0, 25, 0]\nclass = PROTAGONIST", fillcolor="#eb658d"] ;
157 -> 158 ;
159 [label="X[3] <= 84.0\ngini = 0.287\nsamples = 30\nvalue = [0, 0, 4, 0, 1, 0, 0, 0, 0, 0, 0, 0, 0, 0\n0, 25, 0]\nclass = PROTAGONIST", fillcolor="#ea5f89"] ;
158 -> 159 ;
160 [label="X[0] <= 73.5\ngini = 0.238\nsamples = 29\nvalue = [0, 0, 4, 0, 0, 0, 0, 0, 0, 0, 0, 0, 0, 0\n0, 25, 0]\nclass = PROTAGONIST", fillcolor="#e95984"] ;
159 -> 160 ;
161 [label="X[2] <= 44.5\ngini = 0.332\nsamples = 19\nvalue = [0, 0, 4, 0, 0, 0, 0, 0, 0, 0, 0, 0, 0, 0\n0, 15, 0]\nclass = PROTAGONIST", fillcolor="#ec6e94"] ;
160 -> 161 ;
162 [label="X[3] <= 54.5\ngini = 0.426\nsamples = 13\nvalue = [0, 0, 4, 0, 0, 0, 0, 0, 0, 0, 0, 0, 0, 0\n0, 9, 0]\nclass = PROTAGONIST", fillcolor="#f191ae"] ;
161 -> 162 ;
163 [label="gini = 0.0\nsamples = 1\nvalue = [0, 0, 1, 0, 0, 0, 0, 0, 0, 0, 0, 0, 0, 0\n0, 0, 0]\nclass = CAMPAIGNER", fillcolor="#d1e539"] ;
162 -> 163 ;
164 [label="X[0] <= 63.5\ngini = 0.375\nsamples = 12\nvalue = [0, 0, 3, 0, 0, 0, 0, 0, 0, 0, 0, 0, 0, 0\n0, 9, 0]\nclass = PROTAGONIST", fillcolor="#ee7b9e"] ;
162 -> 164 ;
165 [label="X[1] <= 58.5\ngini = 0.5\nsamples = 4\nvalue = [0, 0, 2, 0, 0, 0, 0, 0, 0, 0, 0, 0, 0, 0\n0, 2, 0]\nclass = CAMPAIGNER", fillcolor="#ffffff"] ;
164 -> 165 ;
166 [label="gini = 0.0\nsamples = 1\nvalue = [0, 0, 0, 0, 0, 0, 0, 0, 0, 0, 0, 0, 0, 0\n0, 1, 0]\nclass = PROTAGONIST", fillcolor="#e5396d"] ;
165 -> 166 ;
167 [label="X[1] <= 70.5\ngini = 0.444\nsamples = 3\nvalue = [0, 0, 2, 0, 0, 0, 0, 0, 0, 0, 0, 0, 0, 0\n0, 1, 0]\nclass = CAMPAIGNER", fillcolor="#e8f29c"] ;
165 -> 167 ;
168 [label="gini = 0.0\nsamples = 2\nvalue = [0, 0, 2, 0, 0, 0, 0, 0, 0, 0, 0, 0, 0, 0\n0, 0, 0]\nclass = CAMPAIGNER", fillcolor="#d1e539"] ;
167 -> 168 ;
169 [label="gini = 0.0\nsamples = 1\nvalue = [0, 0, 0, 0, 0, 0, 0, 0, 0, 0, 0, 0, 0, 0\n0, 1, 0]\nclass = PROTAGONIST", fillcolor="#e5396d"] ;
167 -> 169 ;
170 [label="X[2] <= 41.0\ngini = 0.219\nsamples = 8\nvalue = [0, 0, 1, 0, 0, 0, 0, 0, 0, 0, 0, 0, 0, 0\n0, 7, 0]\nclass = PROTAGONIST", fillcolor="#e95582"] ;
164 -> 170 ;
171 [label="gini = 0.0\nsamples = 6\nvalue = [0, 0, 0, 0, 0, 0, 0, 0, 0, 0, 0, 0, 0, 0\n0, 6, 0]\nclass = PROTAGONIST", fillcolor="#e5396d"] ;
170 -> 171 ;
172 [label="X[3] <= 76.5\ngini = 0.5\nsamples = 2\nvalue = [0, 0, 1, 0, 0, 0, 0, 0, 0, 0, 0, 0, 0, 0\n0, 1, 0]\nclass = CAMPAIGNER", fillcolor="#ffffff"] ;
170 -> 172 ;
173 [label="gini = 0.0\nsamples = 1\nvalue = [0, 0, 1, 0, 0, 0, 0, 0, 0, 0, 0, 0, 0, 0\n0, 0, 0]\nclass = CAMPAIGNER", fillcolor="#d1e539"] ;
172 -> 173 ;
174 [label="gini = 0.0\nsamples = 1\nvalue = [0, 0, 0, 0, 0, 0, 0, 0, 0, 0, 0, 0, 0, 0\n0, 1, 0]\nclass = PROTAGONIST", fillcolor="#e5396d"] ;
172 -> 174 ;
175 [label="gini = 0.0\nsamples = 6\nvalue = [0, 0, 0, 0, 0, 0, 0, 0, 0, 0, 0, 0, 0, 0\n0, 6, 0]\nclass = PROTAGONIST", fillcolor="#e5396d"] ;
161 -> 175 ;
176 [label="gini = 0.0\nsamples = 10\nvalue = [0, 0, 0, 0, 0, 0, 0, 0, 0, 0, 0, 0, 0, 0\n0, 10, 0]\nclass = PROTAGONIST", fillcolor="#e5396d"] ;
160 -> 176 ;
177 [label="gini = 0.0\nsamples = 1\nvalue = [0, 0, 0, 0, 1, 0, 0, 0, 0, 0, 0, 0, 0, 0\n0, 0, 0]\nclass = COMPAIGNER", fillcolor="#58e539"] ;
159 -> 177 ;
178 [label="gini = 0.0\nsamples = 1\nvalue = [1, 0, 0, 0, 0, 0, 0, 0, 0, 0, 0, 0, 0, 0\n0, 0, 0]\nclass = ADVENTURER", fillcolor="#e58139"] ;
158 -> 178 ;
179 [label="X[3] <= 81.5\ngini = 0.32\nsamples = 5\nvalue = [0, 0, 4, 0, 0, 0, 0, 0, 0, 0, 0, 0, 0, 0\n0, 1, 0]\nclass = CAMPAIGNER", fillcolor="#dcec6a"] ;
157 -> 179 ;
180 [label="gini = 0.0\nsamples = 3\nvalue = [0, 0, 3, 0, 0, 0, 0, 0, 0, 0, 0, 0, 0, 0\n0, 0, 0]\nclass = CAMPAIGNER", fillcolor="#d1e539"] ;
179 -> 180 ;
181 [label="X[2] <= 28.5\ngini = 0.5\nsamples = 2\nvalue = [0, 0, 1, 0, 0, 0, 0, 0, 0, 0, 0, 0, 0, 0\n0, 1, 0]\nclass = CAMPAIGNER", fillcolor="#ffffff"] ;
179 -> 181 ;
182 [label="gini = 0.0\nsamples = 1\nvalue = [0, 0, 0, 0, 0, 0, 0, 0, 0, 0, 0, 0, 0, 0\n0, 1, 0]\nclass = PROTAGONIST", fillcolor="#e5396d"] ;
181 -> 182 ;
183 [label="gini = 0.0\nsamples = 1\nvalue = [0, 0, 1, 0, 0, 0, 0, 0, 0, 0, 0, 0, 0, 0\n0, 0, 0]\nclass = CAMPAIGNER", fillcolor="#d1e539"] ;
181 -> 183 ;
184 [label="X[3] <= 62.0\ngini = 0.41\nsamples = 19\nvalue = [0, 0, 0, 4, 0, 0, 14, 0, 0, 0, 0, 0, 0, 0\n0, 1, 0]\nclass = DEBATER", fillcolor="#7beeb8"] ;
144 -> 184 ;
185 [label="X[2] <= 70.0\ngini = 0.255\nsamples = 14\nvalue = [0, 0, 0, 1, 0, 0, 12, 0, 0, 0, 0, 0, 0, 0\n0, 1, 0]\nclass = DEBATER", fillcolor="#57e9a5"] ;
184 -> 185 ;
186 [label="X[1] <= 68.0\ngini = 0.142\nsamples = 13\nvalue = [0, 0, 0, 1, 0, 0, 12, 0, 0, 0, 0, 0, 0, 0\n0, 0, 0]\nclass = DEBATER", fillcolor="#49e79e"] ;
185 -> 186 ;
187 [label="gini = 0.0\nsamples = 11\nvalue = [0, 0, 0, 0, 0, 0, 11, 0, 0, 0, 0, 0, 0, 0\n0, 0, 0]\nclass = DEBATER", fillcolor="#39e595"] ;
186 -> 187 ;
188 [label="X[3] <= 31.5\ngini = 0.5\nsamples = 2\nvalue = [0, 0, 0, 1, 0, 0, 1, 0, 0, 0, 0, 0, 0, 0\n0, 0, 0]\nclass = COMMANDER", fillcolor="#ffffff"] ;
186 -> 188 ;
189 [label="gini = 0.0\nsamples = 1\nvalue = [0, 0, 0, 0, 0, 0, 1, 0, 0, 0, 0, 0, 0, 0\n0, 0, 0]\nclass = DEBATER", fillcolor="#39e595"] ;
188 -> 189 ;
190 [label="gini = 0.0\nsamples = 1\nvalue = [0, 0, 0, 1, 0, 0, 0, 0, 0, 0, 0, 0, 0, 0\n0, 0, 0]\nclass = COMMANDER", fillcolor="#95e539"] ;
188 -> 190 ;
191 [label="gini = 0.0\nsamples = 1\nvalue = [0, 0, 0, 0, 0, 0, 0, 0, 0, 0, 0, 0, 0, 0\n0, 1, 0]\nclass = PROTAGONIST", fillcolor="#e5396d"] ;
185 -> 191 ;
192 [label="X[0] <= 59.0\ngini = 0.48\nsamples = 5\nvalue = [0, 0, 0, 3, 0, 0, 2, 0, 0, 0, 0, 0, 0, 0\n0, 0, 0]\nclass = COMMANDER", fillcolor="#dcf6bd"] ;
184 -> 192 ;
193 [label="gini = 0.0\nsamples = 2\nvalue = [0, 0, 0, 2, 0, 0, 0, 0, 0, 0, 0, 0, 0, 0\n0, 0, 0]\nclass = COMMANDER", fillcolor="#95e539"] ;
192 -> 193 ;
194 [label="X[0] <= 67.5\ngini = 0.444\nsamples = 3\nvalue = [0, 0, 0, 1, 0, 0, 2, 0, 0, 0, 0, 0, 0, 0\n0, 0, 0]\nclass = DEBATER", fillcolor="#9cf2ca"] ;
192 -> 194 ;
195 [label="gini = 0.0\nsamples = 2\nvalue = [0, 0, 0, 0, 0, 0, 2, 0, 0, 0, 0, 0, 0, 0\n0, 0, 0]\nclass = DEBATER", fillcolor="#39e595"] ;
194 -> 195 ;
196 [label="gini = 0.0\nsamples = 1\nvalue = [0, 0, 0, 1, 0, 0, 0, 0, 0, 0, 0, 0, 0, 0\n0, 0, 0]\nclass = COMMANDER", fillcolor="#95e539"] ;
194 -> 196 ;
}